tree
version=v3
num_class=1
num_tree_per_iteration=1
label_index=0
max_feature_idx=6
objective=regression
feature_names=Column_0 Column_1 Column_2 Column_3 Column_4 Column_5 Column_6
feature_infos=[0:0.99989145129617019] [0:1] [0.0047817916688051576:0.97412217009756397] [0:0.99999999999999989] [0:1] [45.211698269999999:51.314695389999997] [44.241960450000001:54.222957719999997]
tree_sizes=2522 2391 2393 2559 2460 2655 2570 2567 2561 2649 2570 2491 2570 2496 2493 2657 2659 2739 2672 2750

Tree=0
num_leaves=30
num_cat=0
split_feature=5 0 0 0 6 3 6 1 5 1 0 6 3 3 5 6 5 5 6 6 3 6 5 5 1 6 5 2 1
split_gain=61.024 89.1631 21.6761 19.0542 45.6693 17.4753 15.6872 15.2376 13.1256 10.1065 8.6386 9.90471 8.47882 7.02351 11.3715 6.43124 5.23109 8.6207 4.73307 3.97426 3.85719 3.83563 2.94686 2.78462 2.25085 2.08879 0.968385 0.895747 0.590051
threshold=48.190205785000011 0.98876520915361621 1.0000000180025095e-35 1.0000000180025095e-35 47.065490610000005 0.34699487546874336 45.386370070000005 0.34135561847882295 50.370812080000007 0.52104122906009132 0.99177003463690461 45.569193795000011 0.60249498747587638 0.17597636378541628 49.721851950000008 51.382308165000005 46.490430290000013 46.953686115000004 47.670228680000008 48.972884885000006 0.53213417660122475 47.61431836500001 47.36923525000001 46.326841045000002 0.71517313875678401 46.903114615000007 50.802226455000003 0.32040487733836753 0.52403024908547791
decision_type=2 2 2 2 2 2 2 2 2 2 2 2 2 2 2 2 2 2 2 2 2 2 2 2 2 2 2 2 2
left_child=3 2 6 4 9 13 -2 25 19 -1 16 -12 26 -3 15 -15 18 -18 -5 -7 -10 27 -23 -6 -13 -8 28 -19 -4
right_child=1 5 12 10 23 8 7 -9 20 -11 11 24 -14 14 -16 -17 17 21 -20 -21 -22 22 -24 -25 -26 -27 -28 -29 -30
leaf_value=0.97859449478787697 0.94629905234312672 0.96792658396742726 0.93008785875356403 0.9490649774134321 0.92566510551230896 1.029685113332357 0.96355043661260731 1.0279749861074774 0.98848100524297089 1.0232345389400537 0.93475824096185844 0.98751821696005515 0.96849212147862096 0.9991670369470268 0.97541803079281852 1.0350172911765216 0.9772538069926533 0.9412325099140102 0.92182105020565663 1.05886777908487 1.0184394169551059 0.93886512662229815 0.9622020870464264 0.94977190638197806 0.9648065400211302 0.98504329292192661 0.94639983725341126 0.92766025924790585 0.94020909016587217
leaf_weight=21 27 21 36 25 23 28 20 20 21 32 20 24 30 29 29 22 22 20 44 20 22 24 31 25 20 26 22 31 24
leaf_count=21 27 21 36 25 23 28 20 20 21 32 20 24 30 29 29 22 22 20 44 20 22 24 31 25 20 26 22 31 24
internal_value=0.970285 0.983495 0.960563 0.95511 0.97355 1.00798 0.978405 0.99154 1.02387 1.00555 0.947974 0.963933 0.945748 0.993661 1.00042 1.01463 0.942789 0.948771 0.931692 1.04184 1.00381 0.94286 0.952019 0.938221 0.977195 0.975699 0.937427 0.932983 0.934136
internal_weight=0 397 205 362 101 192 93 66 91 53 261 64 112 101 80 51 197 128 69 48 43 106 55 48 44 46 82 51 60
internal_count=759 397 205 362 101 192 93 66 91 53 261 64 112 101 80 51 197 128 69 48 43 106 55 48 44 46 82 51 60
is_linear=0
shrinkage=1


Tree=1
num_leaves=27
num_cat=0
split_feature=5 6 5 3 4 6 1 1 5 3 3 6 4 6 6 4 2 4 3 2 6 1 4 6 5 1
split_gain=55.0742 75.7398 31.6202 27.9033 24.3882 15.3253 12.1633 12.3529 18.6068 10.583 7.80566 11.545 5.14056 9.88147 7.25069 4.69289 3.60266 3.2909 3.07832 5.0727 2.94639 2.85762 1.76353 0.974214 0.788885 7.09725e-05
threshold=48.190205785000011 46.361860470000003 50.370812080000007 0.34699487546874336 0.69523510010964873 48.885121620000007 0.61024124838067506 0.51509827697839927 47.390340710000011 0.44021978045942683 0.17597636378541628 51.486757265000008 0.13793578532587633 48.314543550000003 51.771102645000006 0.62659937066893323 0.64957108934593943 0.59750516185880187 0.21896554499637169 0.29357118509391 48.972884885000006 0.70478995761181162 0.35811419739756845 45.163754780000005 46.396965085000012 0.73491663230297954
decision_type=2 2 2 2 2 2 2 2 2 2 2 2 2 2 2 2 2 2 2 2 2 2 2 2 2 2
left_child=4 17 3 10 6 15 7 -1 -9 -7 -3 22 -8 18 -15 16 -4 23 -14 21 -5 -20 -12 -2 -21 -6
right_child=1 2 5 20 25 9 12 8 -10 -11 11 -13 13 14 -16 -17 -18 -19 19 24 -22 -23 -24 -25 -26 -27
leaf_value=-0.016726903669918195 -0.034588463839731722 -0.0014805020081852987 -0.024244216376973785 0.060548855498051037 -0.046172125637531286 -0.0006056364093508039 -0.038241852649851991 0.040043061000939746 -0.017464774745431812 0.04362251991160998 0.029711568253114818 0.06169008036022601 -0.034552684738751387 0.018303859813937118 -0.018327386715364727 0.015131024811416866 0.0005557330980621002 -0.010017874433348577 0.0048172433860599996 -0.022144992312505135 0.084153316020965582 -0.017980527008573215 0.010122519731521607 -0.023190291953977902 -0.035548840706115185 -0.046053890983263651
leaf_weight=39 38 22 32 39 22 21 23 39 22 38 20 23 31 35 22 20 27 33 28 21 20 27 27 37 23 30
leaf_count=39 38 22 32 39 22 21 23 39 22 38 20 23 31 35 22 20 27 33 28 21 20 27 27 37 23 30
internal_value=0 0.0125493 0.0258999 0.0417107 -0.0144166 0.00859962 -0.00910135 0.00525105 0.0193025 0.0278803 0.0244983 0.032663 -0.0159358 -0.0131923 0.00416548 -0.00579987 -0.0128951 -0.0231759 -0.020803 -0.0164976 0.0685504 -0.00637439 0.0184583 -0.0289654 -0.0291515 -0.0461039
internal_weight=0 397 289 151 362 138 310 100 61 59 92 70 210 187 57 79 59 108 130 99 59 55 47 75 44 52
internal_count=759 397 289 151 362 138 310 100 61 59 92 70 210 187 57 79 59 108 130 99 59 55 47 75 44 52
is_linear=0
shrinkage=0.05


Tree=2
num_leaves=27
num_cat=0
split_feature=5 6 5 4 4 6 1 1 5 3 5 3 4 4 6 6 6 3 5 3 2 4 6 5 6 1
split_gain=49.7044 68.3552 29.1022 22.4429 22.0104 17.7456 10.9774 11.1485 16.7926 10.1947 8.19446 8.18797 5.24488 4.63935 8.91803 6.54375 4.02447 3.05122 3.06084 2.77819 4.57811 2.78271 2.33344 0.711968 0.460731 6.49003e-05
threshold=48.190205785000011 46.361860470000003 49.721851950000008 0.3874351751303845 0.69523510010964873 48.885121620000007 0.61024124838067506 0.51509827697839927 47.390340710000011 0.40103799188373368 51.001377475000005 0.20380780761400977 0.47902926956155945 0.13793578532587633 48.314543550000003 51.771102645000006 50.02541114000001 0.50692302333160855 48.845062850000005 0.21896554499637169 0.29357118509391 0.4864995836119359 47.523163395000005 46.396965085000012 45.163754780000005 0.76517138891743952
decision_type=2 2 2 2 2 2 2 2 2 2 2 2 2 2 2 2 2 2 2 2 2 2 2 2 2 2
left_child=4 17 3 11 6 12 7 -1 -9 -7 -11 -3 -4 -8 19 -16 -5 24 -19 -15 21 -21 -14 -22 -2 -6
right_child=1 2 5 16 25 9 13 8 -10 10 -12 -13 22 14 15 -17 -18 18 -20 20 23 -23 -24 -25 -26 -27
leaf_value=-0.015890558317112616 -0.036040493616691004 0.00011260711701955491 -0.023920264147454875 0.055964123326189379 -0.043850432655641008 0.0064414664990071098 -0.036329760183782686 0.038040907848148779 -0.016591535813429141 0.065118374743244875 0.024651019808290334 0.037815683800727133 -0.0058983146339993582 -0.032825050478981391 0.017388666546238322 -0.017411016842181031 0.083409401097080935 -0.028546664553383991 -0.0056195956705188434 0.0027831178870709504 -0.021037742788238185 -0.020366087848586695 0.013050967472372577 -0.033771398558240871 -0.026083089065338884 -0.043738383054733279
leaf_weight=39 26 24 24 34 28 33 23 39 22 22 29 36 33 31 35 22 22 24 37 34 21 21 32 23 21 24
leaf_count=39 26 24 24 34 28 33 23 39 22 22 29 36 33 31 35 22 22 24 37 34 21 21 32 23 21 24
internal_value=0 0.0119218 0.0246049 0.0439815 -0.0136958 0.0116124 -0.00864628 0.0049885 0.0183374 0.0280959 0.0421075 0.0227345 -0.00394494 -0.015139 -0.0125327 0.00395721 0.0667462 -0.0220171 -0.0146401 -0.0197629 -0.0156727 -0.00605567 0.00343056 -0.027694 -0.0315914 -0.0437987
internal_weight=0 397 289 116 362 173 310 100 61 84 51 60 89 210 187 57 56 108 61 130 99 55 65 44 47 52
internal_count=759 397 289 116 362 173 310 100 61 84 51 60 89 210 187 57 56 108 61 130 99 55 65 44 47 52
is_linear=0
shrinkage=0.05


Tree=3
num_leaves=29
num_cat=0
split_feature=5 6 5 4 4 6 1 1 5 3 5 3 4 4 6 6 6 4 6 6 1 5 6 6 1 5 3 1
split_gain=44.8582 61.6906 26.2648 20.2547 19.8644 16.0154 9.90708 10.0615 15.1553 9.20073 7.3955 7.38964 4.7335 4.18701 8.04852 5.90573 3.63208 2.81342 2.79327 7.01505 3.22659 2.25545 2.10593 1.54828 1.07547 0.724046 0.286568 5.90417e-05
threshold=48.190205785000011 46.361860470000003 49.721851950000008 0.3874351751303845 0.69523510010964873 48.885121620000007 0.61024124838067506 0.51509827697839927 47.390340710000011 0.40103799188373368 51.001377475000005 0.20380780761400977 0.47902926956155945 0.13793578532587633 48.314543550000003 51.771102645000006 50.02541114000001 0.62968731077961793 47.065490610000005 45.998937250000004 0.70746448691371711 46.396965085000012 47.523163395000005 45.163754780000005 0.4154945876074268 48.816871850000005 0.38226578134306549 0.73491663230297954
decision_type=2 2 2 2 2 2 2 2 2 2 2 2 2 2 2 2 2 2 2 2 2 2 2 2 2 2 2 2
left_child=4 17 3 11 6 12 7 -1 -9 -7 -11 -3 -4 -8 18 -16 -5 23 19 26 -21 -20 -14 25 -25 -2 -15 -6
right_child=1 2 5 16 27 9 13 8 -10 10 -12 -13 22 14 15 -17 -18 -19 21 20 -22 -23 -24 24 -26 -27 -28 -29
leaf_value=-0.015096030957423724 -0.024670576313510537 0.00010697649983436957 -0.022724251014490923 0.053165918325676645 -0.041670997440814976 0.0061193931847810749 -0.034513271648598756 0.036138862533829155 -0.015761959214102141 0.061862456273626201 0.023418468757179275 0.035924900178280143 -0.0056033986197276554 -0.023683560300957075 0.016519233143356231 -0.016540466365404429 0.079238930615511807 -0.0044904394607458804 -0.038789349630475048 0.015825678706169129 -0.012235729604782093 -0.016838341007347813 0.012398418987868354 -0.0097239853441715238 -0.025423091844034691 -0.03767851626743441 -0.031953110322356225 -0.041563157637914024
leaf_weight=39 20 24 24 34 22 33 23 39 22 22 29 36 33 22 35 22 22 21 25 20 21 22 32 20 24 23 20 30
leaf_count=39 20 24 24 34 22 33 23 39 22 22 29 36 33 22 35 22 22 21 25 20 21 22 32 20 24 23 20 30
internal_value=0 0.0113257 0.0233746 0.0417824 -0.013011 0.0110318 -0.00821397 0.00473907 0.0174205 0.0266911 0.0400021 0.0215977 -0.00374769 -0.0143821 -0.0119061 0.00375935 0.0634089 -0.0209162 -0.0187747 -0.0132595 0.00145276 -0.0285144 0.00325903 -0.024881 -0.0182871 -0.0316283 -0.0276214 -0.0416088
internal_weight=0 397 289 116 362 173 310 100 61 84 51 60 89 210 187 57 56 108 130 83 41 47 65 87 44 43 42 52
internal_count=759 397 289 116 362 173 310 100 61 84 51 60 89 210 187 57 56 108 130 83 41 47 65 87 44 43 42 52
is_linear=0
shrinkage=0.05


Tree=4
num_leaves=28
num_cat=0
split_feature=5 0 4 0 6 0 3 6 6 5 5 2 3 6 0 6 3 5 3 2 4 6 0 5 2 3 2
split_gain=40.4846 59.5609 17.9609 19.5048 20.6158 17.6728 12.8691 12.35 11.2369 9.22999 8.2984 8.00737 7.59871 6.33248 7.51033 11.9789 6.23224 5.46257 5.10438 4.10704 2.77278 1.97356 1.27091 1.21647 0.309149 0.24107 0.0576969
threshold=48.190205785000011 0.98876520915361621 0.68104648347636332 1.0000000180025095e-35 47.065490610000005 1.0000000180025095e-35 0.25970777042576665 49.488438900000006 45.386370070000005 50.088846135000004 50.814029360000006 0.34302062707444958 0.43190198991034379 45.998937250000004 0.98953491814440941 47.61431836500001 0.64838961256828287 46.396965085000012 0.53213417660122475 0.2345669294847825 0.48172783309887629 47.523163395000005 0.99039343971106319 47.36923525000001 0.53847361201743438 0.6134513045680271 0.22563976105562
decision_type=2 2 2 2 2 2 2 2 2 2 2 2 2 2 2 2 2 2 2 2 2 2 2 2 2 2 2
left_child=2 5 3 4 12 8 19 9 -2 11 22 -8 -1 20 23 17 21 -16 -10 -3 -5 24 -9 -15 -7 -20 -4
right_child=1 6 26 13 -6 16 7 10 18 -11 -12 -13 -14 14 15 -17 -18 -19 25 -21 -22 -23 -24 -25 -26 -27 -28
leaf_value=0.049967973546258045 -0.01904571038429384 0.026233512467782324 -0.036530947908759118 -0.037629528391574116 -0.019776902024944625 -0.027860120769688176 0.014690942876040936 0.07722088801009315 0.038256414809628679 0.0019878261619144014 0.029978877833733958 0.056432337507053655 0.011627550269743854 -0.028711726891402251 0.0026775386391414539 0.022924143077312588 0.003191672762235006 -0.027446417735122582 0.012732065274295483 -0.0011284823921414501 -0.017865691302965083 -0.013153074011206628 0.059609456304460767 -0.01354475872591138 -0.034475190169883499 0.0052425264425220944 -0.03989744739873069
leaf_weight=28 27 24 20 35 30 38 20 21 23 27 21 27 24 39 27 34 21 34 22 32 36 20 20 20 33 21 35
leaf_count=28 27 24 20 35 30 38 20 21 23 27 21 27 24 39 27 34 21 34 22 32 36 20 20 20 33 21 35
internal_value=0 0.0107594 -0.0123605 -0.00764644 0.01323 -0.00798312 0.030771 0.0390776 0.00812755 0.025286 0.0555385 0.03867 0.0322724 -0.0152547 -0.0095592 -0.000857514 -0.0213607 -0.0141129 0.0192439 0.0105981 -0.0276084 -0.0270267 0.0686299 -0.0235704 -0.0309347 0.00907438 -0.0386733
internal_weight=0 397 362 307 82 205 192 136 93 74 62 47 52 225 154 95 112 61 66 56 71 91 41 59 71 43 55
internal_count=759 397 362 307 82 205 192 136 93 74 62 47 52 225 154 95 112 61 66 56 71 91 41 59 71 43 55
is_linear=0
shrinkage=0.05


Tree=5
num_leaves=30
num_cat=0
split_feature=6 3 0 2 6 4 0 3 0 3 6 2 0 0 2 3 0 3 4 6 4 3 1 2 3 4 4 1 6
split_gain=41.9998 51.5414 14.7596 17.0318 11.5145 13.4865 11.0551 12.1344 10.625 9.75206 12.8624 11.4713 8.44352 7.82299 4.70363 3.75639 2.47887 2.44301 2.42815 2.37866 2.21344 2.45416 2.04729 1.16817 1.05497 1.02695 1.05661 0.632557 0.254118
threshold=48.837983310000006 0.20812023386979087 1.0000000180025095e-35 0.25567694893484699 45.998937250000004 0.69523510010964873 0.98887375785744613 0.35620500535739152 0.99032929729516372 0.53137102726431962 47.065490610000005 0.48967046883870807 0.98876520915361621 0.98979642183999927 0.39976254934578703 0.33354845171570857 0.99183911108479628 0.51155133989938706 0.17215792692974144 46.157531210000009 0.48816646089646709 0.41289218088856494 0.55596606987575303 0.28140015880361618 0.50364231642273316 0.54402469005335263 0.47502364732045838 0.77340007401061228 45.163754780000005
decision_type=2 2 2 2 2 2 2 2 2 2 2 2 2 2 2 2 2 2 2 2 2 2 2 2 2 2 2 2 2
left_child=2 13 3 -1 20 6 17 8 -8 10 11 22 -3 18 -9 23 -10 -6 -2 -11 28 -22 -5 -14 -23 26 -17 -7 -4
right_child=1 12 4 9 5 27 7 14 16 19 -12 -13 15 -15 -16 25 -18 -19 -20 -21 21 24 -24 -25 -26 -27 -28 -29 -30
leaf_value=-0.028194582415744664 -0.028922611963935196 0.0098192616179585464 -0.036379925658305487 0.061198756985721137 -0.033180493505104734 -0.02529168102890253 0.016830295688637042 0.0092949348203837882 -0.027398817218614348 -0.014623341702476698 -0.007581042911857367 0.0048516133489708109 0.041897196358158473 0.012909075079261569 0.038889662670935021 0.04958577674813569 -0.0050907147000543778 -0.01013513453628706 -0.0094444691552780582 0.0056762495709042401 -0.0056725023557310517 -0.032679950445890428 0.038846219268161807 0.025219762988299844 -0.018294694405407288 0.044794013411737978 0.065838574767112731 -0.037577897716652264 -0.02947723259218037
leaf_weight=32 32 20 24 21 23 20 34 25 33 27 25 21 21 27 29 20 20 23 32 31 23 25 20 21 26 25 20 22 30
leaf_count=32 32 20 24 21 23 20 34 25 33 27 25 21 21 27 29 20 20 23 32 31 23 25 20 21 26 25 20 22 30
internal_value=0 0.0190595 -0.00698423 0.00482126 -0.0128374 -0.00612392 -0.000373428 0.00657041 -0.00498558 0.0121075 0.0226949 0.0349029 0.0396392 -0.00966156 0.0251884 0.045213 -0.0189807 -0.0216578 -0.0191835 -0.00377356 -0.0248482 -0.0192315 0.0502951 0.0335585 -0.0253463 0.0527437 0.0577122 -0.0317273 -0.0325451
internal_weight=0 218 534 177 357 229 187 141 87 145 87 62 127 91 54 107 53 46 64 58 128 74 41 42 51 65 40 42 54
internal_count=752 218 534 177 357 229 187 141 87 145 87 62 127 91 54 107 53 46 64 58 128 74 41 42 51 65 40 42 54
is_linear=0
shrinkage=0.05


Tree=6
num_leaves=29
num_cat=0
split_feature=5 6 4 3 5 1 1 6 5 6 4 4 3 6 4 3 1 3 2 3 1 4 6 1 4 2 3 2
split_gain=43.1242 34.6893 18.0503 11.2217 10.8483 10.4465 8.72555 8.30996 20.4391 7.78393 5.7658 5.38795 4.92965 9.14557 7.61316 3.42402 2.71885 2.69262 2.68096 4.19987 6.61626 2.28728 2.06453 2.01375 1.51616 1.5006 0.188113 0.00388034
threshold=48.834276040000006 48.885121620000007 0.6535045774543311 0.26521836485776656 50.814029360000006 0.4243292134619297 0.58549717016494041 46.402205110000004 50.088846135000004 45.998937250000004 0.57814493927147514 0.49078680510811806 0.13502388732712317 48.314543550000003 0.29339562558013182 0.34224485889877382 0.36525042565141025 0.5215470646579089 0.32687990573569164 0.26521836485776656 0.67851770200660322 0.18952240372325793 45.163754780000005 0.45825396060175289 0.50407635325090483 0.26093636627250422 0.28806809584572662 0.25396886839556454
decision_type=2 2 2 2 2 2 2 2 2 2 2 2 2 2 2 2 2 2 2 2 2 2 2 2 2 2 2 2
left_child=2 7 5 -3 23 -1 9 16 -9 11 24 -7 21 18 -15 -11 -2 -6 19 25 -21 -8 -20 -5 -10 -14 27 -4
right_child=1 3 26 4 17 6 12 8 10 15 -12 -13 13 14 -16 -17 -18 -19 22 20 -22 -23 -24 -25 -26 -27 -28 -29
leaf_value=-0.029735527779811467 -0.0019093916872921198 0.0081414278862731795 -0.036040297001600267 0.069541599314946398 0.013479471553794363 -0.017618818221421081 -0.031815175998669405 0.048587408095598222 -0.019473693985491994 0.012888246805717549 0.013998991420323199 0.011718040321241407 -0.025065574958231692 -0.0013840693924011608 0.037126752188695329 0.040900239129550757 -0.024446848110528663 0.038510039963182953 -0.030198959944148857 0.024317288900847021 -0.011875196635290715 -0.010633602347224951 -0.010665687857263332 0.049666871308814739 -0.0028488938153410953 -0.0065213718637824065 -0.030593806095421318 -0.037025225460529325
leaf_weight=39 23 28 20 26 22 29 26 25 32 24 33 34 24 33 21 20 32 21 24 23 28 25 31 25 24 20 20 20
leaf_count=39 23 28 20 26 22 29 26 25 32 24 33 34 24 33 21 20 32 21 24 23 28 25 31 25 24 20 20 20
internal_value=0 0.0156078 -0.0089756 0.035926 0.0442023 -0.00514854 -0.00249966 0.000940267 0.00864141 0.00948402 -0.00257938 -0.00178623 -0.00752811 -0.00405212 0.0135924 0.025621 -0.0150221 0.0257037 -0.0104041 -0.00531799 0.0044469 -0.0214321 -0.0191893 0.0597991 -0.0123488 -0.0166364 -0.0345531 -0.0365328
internal_weight=0 291 461 122 94 401 362 169 114 107 89 63 255 204 54 44 55 43 150 95 51 51 55 51 56 44 60 40
internal_count=752 291 461 122 94 401 362 169 114 107 89 63 255 204 54 44 55 43 150 95 51 51 55 51 56 44 60 40
is_linear=0
shrinkage=0.05


Tree=7
num_leaves=29
num_cat=0
split_feature=6 3 0 2 6 4 0 3 0 3 6 2 0 0 2 3 0 3 6 4 4 3 1 4 6 3 4 0
split_gain=34.2512 42.2772 13.1604 14.3443 9.76317 10.8901 9.42807 10.0908 9.51582 8.49541 11.2624 9.8433 7.2103 6.53286 3.89868 3.24985 2.11736 2.07916 2.0215 1.95495 1.87706 1.91217 1.77185 1.56279 1.38701 1.1929 0.561629 0.0823651
threshold=48.837983310000006 0.20812023386979087 1.0000000180025095e-35 0.25567694893484699 45.998937250000004 0.69523510010964873 0.98887375785744613 0.35620500535739152 0.99032929729516372 0.53137102726431962 47.065490610000005 0.48967046883870807 0.98876520915361621 0.98979642183999927 0.39976254934578703 0.37471186222697783 0.99183911108479628 0.51155133989938706 46.157531210000009 0.17215792692974144 0.463962694883363 0.4282615977380273 0.55596606987575303 0.54402469005335263 51.486757265000008 0.50364231642273316 0.81643606263177648 0.99052172454286203
decision_type=2 2 2 2 2 2 2 2 2 2 2 2 2 2 2 2 2 2 2 2 2 2 2 2 2 2 2 2
left_child=2 13 3 -1 20 6 17 8 -8 10 11 22 -3 19 -9 24 -10 -6 -11 -2 27 -22 -5 -17 -14 -23 -7 -4
right_child=1 12 4 9 5 26 7 14 16 18 -12 -13 15 -15 -16 23 -18 -19 -20 -21 21 25 -24 -25 -26 -27 -28 -29
leaf_value=-0.025459089258220047 -0.026240863255225122 0.008293754234910012 -0.03390121992145266 0.057233919584680173 -0.030771034632040107 -0.022595690786838533 0.016035108846228788 0.0084356384528800846 -0.025635321878574115 -0.013297820456877905 -0.006921717651188374 0.0049948210783657583 0.024562189548409413 0.011825047270448759 0.035379287992315045 0.057531184600345023 -0.005017944932915271 -0.0095109430020270148 0.0054158059399454827 -0.008763418564922177 -0.0097022761271468236 -0.032689123917371034 0.036439327751286325 0.040472421653568749 0.040765300393104553 -0.017531838907894712 -0.034172612022269858 -0.029417805802077059
leaf_weight=32 32 20 21 21 23 20 34 25 33 27 25 21 28 27 29 29 20 23 31 32 35 25 20 25 25 27 22 20
leaf_count=32 32 20 21 21 23 20 34 25 33 27 25 21 28 27 29 29 20 23 31 32 35 25 20 25 25 27 22 20
internal_value=0 0.0172115 -0.00630746 0.00484014 -0.0118344 -0.00565256 -0.000485166 0.00592737 -0.0046107 0.0115269 0.0214086 0.0328321 0.0358501 -0.00880067 0.0229054 0.0410008 -0.0178552 -0.020141 -0.00329571 -0.0175021 -0.0228941 -0.0187376 0.0470902 0.0496336 0.0322052 -0.024819 -0.0286598 -0.0317142
internal_weight=0 218 534 177 357 229 187 141 87 145 87 62 127 91 54 107 53 46 58 64 128 87 41 54 53 52 42 41
internal_count=752 218 534 177 357 229 187 141 87 145 87 62 127 91 54 107 53 46 58 64 128 87 41 54 53 52 42 41
is_linear=0
shrinkage=0.05


Tree=8
num_leaves=29
num_cat=0
split_feature=5 0 4 0 1 0 6 6 0 2 5 4 1 6 0 5 4 4 5 1 4 0 5 0 2 6 2 1
split_gain=35.5717 30.9324 15.0716 11.3681 8.92228 16.9532 17.9429 8.21828 22.4845 8.1191 6.04317 5.00223 4.84243 4.28366 10.1298 7.00205 3.13873 3.02129 5.52526 2.82589 2.04602 1.42657 1.36739 1.36296 1.44542 0.384171 0.172977 0.133969
threshold=48.834276040000006 0.98876520915361621 0.6535045774543311 0.98750703099558901 0.4243292134619297 1.0000000180025095e-35 47.065490610000005 47.61431836500001 0.98953491814440941 0.44481480890444636 46.396965085000012 0.3304816706046857 0.34135561847882295 48.972884885000006 0.99007766166355837 50.088846135000004 0.61324325704400418 0.44056088660278303 50.73266121000001 0.70478995761181162 0.44056088660278303 0.99012700198348103 50.802226455000003 0.98767478808332598 0.19300706277860899 46.292649945000008 0.55131110025200714 0.68299505676298977
decision_type=2 2 2 2 2 2 2 2 2 2 2 2 2 2 2 2 2 2 2 2 2 2 2 2 2 2 2 2
left_child=2 3 4 12 -1 6 9 10 23 -6 19 -10 22 15 -15 -3 26 -16 -19 -7 25 -22 -2 -9 -25 -12 -5 -4
right_child=1 13 27 16 5 7 -8 8 11 -11 20 -13 -14 14 17 -17 -18 18 -20 -21 21 -23 -24 24 -26 -27 -28 -29
leaf_value=-0.027380429934232665 -0.008489677928049456 0.040477951261259262 -0.028307158854745686 -0.023422113349661232 0.050084203763893158 0.014418939379975199 -0.017260506966461739 -0.026457714401185512 0.013784324395685242 0.0097113096248358493 -0.032841213436230372 0.0461790495171127 0.027039908576342798 0.066080269149758605 0.016173435883088547 0.0028337967147429787 -0.0025895268283784392 0.055506991520524032 0.019573314941447716 -0.010796650763601066 -0.021863517597375905 -0.0064095933306297023 0.0077032914967276158 -0.018224159518497124 -0.0016809467529959007 -0.024522650636998669 -0.029919398327668507 -0.033260591672017024
leaf_weight=39 22 21 21 20 33 20 24 20 26 20 23 22 27 22 33 30 20 20 23 25 32 28 32 31 23 35 21 39
leaf_count=39 22 21 21 20 33 20 24 20 26 20 23 22 27 22 33 30 20 20 23 25 32 28 32 31 23 35 21 39
internal_value=0 0.0141723 -0.0081549 -0.00252627 -0.00465785 -0.00220983 0.0186072 -0.00783408 0.00198005 0.0348491 -0.0151796 0.0286319 0.00975074 0.0300864 0.0362022 0.0183343 -0.0188285 0.0275533 0.0362867 0.000410278 -0.0211249 -0.0146517 0.00110616 -0.0153076 -0.011178 -0.0278214 -0.02675 -0.0315269
internal_weight=0 291 461 142 401 362 77 285 122 53 163 48 81 149 98 51 61 76 43 45 118 60 54 74 54 58 41 60
internal_count=752 291 461 142 401 362 77 285 122 53 163 48 81 149 98 51 61 76 43 45 118 60 54 74 54 58 41 60
is_linear=0
shrinkage=0.05


Tree=9
num_leaves=30
num_cat=0
split_feature=5 0 4 0 1 0 6 6 0 3 6 5 3 5 5 4 1 4 1 3 4 1 3 0 1 6 3 0 0
split_gain=32.1034 27.9165 13.6021 10.2597 8.05236 15.3002 16.1935 7.417 20.2923 6.5069 8.16038 6.31655 5.76211 5.45396 5.39585 4.51451 4.37029 2.83271 2.55037 1.94248 1.84653 1.84256 1.51035 1.28748 0.398603 0.346714 0.16653 0.13801 0.00355338
threshold=48.834276040000006 0.98876520915361621 0.6535045774543311 0.98750703099558901 0.4243292134619297 1.0000000180025095e-35 47.065490610000005 47.61431836500001 0.98953491814440941 0.24324024360235955 48.972884885000006 50.088846135000004 0.44773855548949454 46.396965085000012 50.814029360000006 0.3304816706046857 0.34135561847882295 0.61324325704400418 0.70478995761181162 0.14752929413470273 0.44056088660278303 0.45825396060175289 0.57164236959757819 0.99012700198348103 0.79785210818269447 46.292649945000008 0.28806809584572662 0.9881632572505602 0.98918953590495085
decision_type=2 2 2 2 2 2 2 2 2 2 2 2 2 2 2 2 2 2 2 2 2 2 2 2 2 2 2 2 2
left_child=2 3 4 16 -1 6 12 13 19 -3 11 -11 -6 18 21 -10 22 27 -7 24 25 -12 -2 -22 -9 -15 28 -5 -4
right_child=1 9 26 17 5 7 -8 8 15 10 14 -13 -14 20 -16 -17 -18 -19 -20 -21 23 -23 -24 -25 -26 -27 -28 -29 -30
leaf_value=-0.026011408442774643 -0.0098519241437315941 0.0034773680974136698 -0.032284432947635652 -0.022439946723170581 0.046462107641855259 0.01369799247942865 -0.016397482374062144 -0.016258083023130893 0.013095108355180577 0.038968107756227256 0.06099170340368381 0.0026921070894847313 0.012755580958245055 -0.031199153026808864 0.021529916407806535 0.04387009706856175 0.025687913206854353 -0.0024600507691502575 -0.010256818499416114 -0.0050014281052074604 -0.020770341998195364 0.042806096660594151 0.0074642434004036822 -0.0060891138057091411 -0.025909600823955693 -0.023296518112931933 -0.02622529171407223 -0.028243485944057331 -0.031341912150382997
leaf_weight=39 20 22 20 20 32 20 24 20 26 20 26 30 21 23 21 22 27 20 25 31 32 30 34 28 23 35 20 21 20
leaf_count=39 20 22 20 20 32 20 24 20 26 20 26 30 21 23 21 22 27 20 25 31 32 30 34 28 23 35 20 21 20
internal_value=0 0.0134637 -0.00774716 -0.00239996 -0.00442496 -0.00209934 0.0176768 -0.00744238 0.00188105 0.028582 0.0329309 0.0172025 0.0331067 -0.0144206 0.0431441 0.0272003 0.0092632 -0.0178871 0.000389764 -0.0145423 -0.0200687 0.0512494 0.00105085 -0.0139191 -0.0214205 -0.0264303 -0.0299505 -0.0254125 -0.0318132
internal_weight=0 291 461 142 401 362 77 285 122 149 127 50 53 163 77 48 81 61 45 74 118 56 54 60 43 58 60 41 40
internal_count=752 291 461 142 401 362 77 285 122 149 127 50 53 163 77 48 81 61 45 74 118 56 54 60 43 58 60 41 40
is_linear=0
shrinkage=0.05


Tree=10
num_leaves=29
num_cat=0
split_feature=5 0 5 6 6 3 0 3 6 1 0 3 5 3 6 0 0 6 0 2 2 5 1 2 1 3 5 2
split_gain=23.4082 23.4055 8.36574 13.8615 12.9595 12.8025 8.15847 7.21144 7.41213 5.33726 4.94183 4.51413 4.44867 4.0635 6.03129 5.98249 3.8786 3.83452 3.40018 2.25435 2.15872 1.58517 1.26113 0.926251 0.754867 0.579001 0.142698 0.0695803
threshold=48.834276040000006 0.98887375785744613 46.36566014000001 47.065490610000005 45.43854940500001 0.35720308427978925 0.98703829795632403 0.22769594213006764 49.488438900000006 0.34135561847882295 0.99048225228692399 0.60887642888679572 50.088846135000004 0.13502388732712317 47.61431836500001 0.98916979977698183 1.0000000180025095e-35 46.361860470000003 0.99036383551910967 0.20778553202158614 0.52028501985620279 50.814029360000006 0.65394013901292503 0.21872315624415506 0.52403024908547791 0.40297963918678098 46.227378595000005 0.26093636627250422
decision_type=2 2 2 2 2 2 2 2 2 2 2 2 2 2 2 2 2 2 2 2 2 2 2 2 2 2 2 2
left_child=2 6 3 22 16 13 9 -3 12 -2 -10 20 -9 19 18 -16 -4 -7 -15 -6 -8 -12 -1 -17 -18 -26 27 -5
right_child=1 7 4 26 5 17 11 8 10 -11 21 -13 -14 14 15 23 24 -19 -20 -21 -22 -23 -24 -25 25 -27 -28 -29
leaf_value=0.014022621959447862 -0.0012937483085053308 -0.0016055681488730692 -0.0039196781255304812 -0.027695193027870525 -0.023851086944341661 0.011220158457756042 -0.0096528010827919043 0.02916980165367325 0.057749487631596055 0.030134590451383371 0.039957799864932898 0.0053050861653426429 0.00091243224003567137 0.0028974902515377229 -0.0040975398555594053 0.015495195370167495 -0.031599409457134166 0.03864560174540832 -0.02217027501112992 -0.0027788849208842626 -0.028559937379840351 0.020289133666526706 -0.0037335464794887234 0.030362512391399255 -0.027465356159955264 -0.016683940527339777 -0.034129884590705234 -0.031222363163171143
leaf_weight=20 35 22 35 27 30 25 26 30 26 22 20 23 26 24 38 20 23 26 31 22 36 21 20 22 20 33 24 29
leaf_count=20 35 22 35 27 30 25 26 30 26 22 20 23 26 24 38 20 23 26 31 22 36 21 20 22 20 33 24 29
internal_value=0 0.0106299 -0.00749968 -0.018888 -0.00358395 0.00299603 -0.00379883 0.0247601 0.0294759 0.0108365 0.0406972 -0.0136131 0.0160503 -0.00306008 0.00151433 0.0102772 -0.0176924 0.0252018 -0.0112316 -0.0149359 -0.0206311 0.0298836 0.00514454 0.0232828 -0.024035 -0.0207524 -0.0309042 -0.0295218
internal_weight=0 287 469 120 349 238 142 145 123 57 67 85 56 187 135 80 111 51 55 52 62 41 40 42 76 53 80 56
internal_count=756 287 469 120 349 238 142 145 123 57 67 85 56 187 135 80 111 51 55 52 62 41 40 42 76 53 80 56
is_linear=0
shrinkage=0.05


Tree=11
num_leaves=28
num_cat=0
split_feature=5 0 5 6 6 3 0 3 6 1 0 3 5 0 6 0 2 0 6 2 1 2 1 3 3 5 2
split_gain=21.1259 21.1234 7.55008 12.51 11.6959 11.5543 7.36302 6.50832 6.68945 4.81688 4.54034 4.074 4.01492 3.99001 5.56337 9.55558 3.73198 3.50043 3.46065 1.94824 1.13817 0.770791 0.681267 0.522549 0.516375 0.128785 0.0630049
threshold=48.834276040000006 0.98887375785744613 46.36566014000001 47.065490610000005 45.43854940500001 0.35720308427978925 0.98703829795632403 0.22769594213006764 49.488438900000006 0.34135561847882295 0.99123715918174027 0.60887642888679572 50.088846135000004 0.98696428747644005 47.61431836500001 0.99000365118367439 0.20644915775570785 1.0000000180025095e-35 46.361860470000003 0.52028501985620279 0.65394013901292503 0.26164322638457538 0.52403024908547791 0.40297963918678098 0.14752929413470273 46.227378595000005 0.25396886839556454
decision_type=2 2 2 2 2 2 2 2 2 2 2 2 2 2 2 2 2 2 2 2 2 2 2 2 2 2 2
left_child=2 6 3 20 17 13 9 -3 12 -2 -10 19 -9 -6 21 16 24 -4 -7 -8 -1 -15 -19 -24 -16 26 -5
right_child=1 7 4 25 5 18 11 8 10 -11 -12 -13 -14 14 15 -17 -18 22 -20 -21 -22 -23 23 -25 -26 -27 -28
leaf_value=0.01332149125635624 -0.0012290608563593458 -0.0015252898023887114 -0.0037236944386469469 -0.026244163108864228 0.016126684631065778 0.010659150034189225 -0.0091701607954186894 0.02771131120622158 0.049691046798864436 0.028627861159938303 0.023300997260957957 0.0050398314938597056 0.00086681052254369633 -0.012247869465500117 -0.022481858143927877 0.022551530079149149 0.0041356982081197204 -0.030019439108993698 0.036713321600109337 -0.027131940103653409 -0.0035468700196361171 -0.025007041230605084 -0.02609208831563592 -0.015849743343212389 -0.01202788127231456 -0.032423390199740727 -0.029606986343860626
leaf_weight=20 35 22 35 26 24 25 26 30 39 22 28 23 26 20 27 34 32 23 26 36 20 29 20 33 21 24 30
leaf_count=20 35 22 35 26 24 25 26 30 39 22 28 23 26 20 27 34 32 23 26 36 20 29 20 33 21 24 30
internal_value=0 0.0100984 -0.0071247 -0.0179436 -0.00340475 0.00284623 -0.00360889 0.0235221 0.0280021 0.0102947 0.0386624 -0.0129324 0.0152478 -0.00290707 -0.00570959 0.00034648 -0.00909067 -0.0168077 0.0239417 -0.0195996 0.00488731 -0.0197992 -0.0228333 -0.0197148 -0.0179082 -0.029359 -0.0280457
internal_weight=0 287 469 120 349 238 142 145 123 57 67 85 56 187 163 114 80 111 51 62 40 49 76 53 48 80 56
internal_count=756 287 469 120 349 238 142 145 123 57 67 85 56 187 163 114 80 111 51 62 40 49 76 53 48 80 56
is_linear=0
shrinkage=0.05


Tree=12
num_leaves=29
num_cat=0
split_feature=5 0 0 5 6 6 3 3 6 0 3 1 3 6 0 5 3 0 5 0 2 1 2 2 1 3 5 2
split_gain=19.0661 19.1198 7.31793 6.81395 11.2902 10.5556 10.4277 5.63511 7.92283 5.13535 4.39655 4.34724 3.62804 4.94386 5.08284 3.43868 3.20658 3.15914 2.89668 2.87505 1.84622 1.0272 1.00858 0.807737 0.614844 0.4716 0.116228 0.0568742
threshold=48.834276040000006 0.98878494528158523 0.98703829795632403 46.36566014000001 47.065490610000005 45.43854940500001 0.35720308427978925 0.22769594213006764 49.488438900000006 0.99007766166355837 0.60887642888679572 0.34135561847882295 0.13502388732712317 47.61431836500001 0.98916979977698183 50.088846135000004 0.3846536334717654 1.0000000180025095e-35 50.73266121000001 0.99036383551910967 0.20778553202158614 0.65394013901292503 0.52028501985620279 0.21872315624415506 0.52403024908547791 0.40297963918678098 46.227378595000005 0.26093636627250422
decision_type=2 2 2 2 2 2 2 2 2 2 2 2 2 2 2 2 2 2 2 2 2 2 2 2 2 2 2 2
left_child=3 2 11 4 21 17 12 -3 15 -10 22 -2 20 19 -15 -9 -8 -5 -11 -14 -7 -1 -4 -16 -19 -26 27 -6
right_child=1 7 10 5 26 6 16 8 9 18 -12 -13 13 14 23 -17 -18 24 -20 -21 -22 -23 -24 -25 25 -27 -28 -29
leaf_value=0.012655416280031204 -0.0011676078715494702 -0.0014490255747329106 -0.013023829209091869 -0.0035375099150197851 -0.02499199807298956 -0.022051110304892065 0.037729600675049282 0.02427907029407159 0.058916212040930983 0.042113082060082394 0.0047878400422632699 0.027196467862549152 0.0030131071068656944 -0.0037555776904092024 0.014209859650582074 0.00032596923089746777 0.012255075297628841 -0.028518466894393382 0.017461592976290446 -0.020037781498432463 -0.0029815255664288999 -0.003369526143651456 -0.026580663441735153 0.028093497980047358 -0.024787483895197512 -0.015057255948583285 -0.03080222047865391 -0.028180896028362476
leaf_weight=20 35 22 23 35 27 30 21 31 20 22 23 22 24 38 20 29 30 23 26 31 22 20 34 22 20 33 24 29
leaf_count=20 35 22 23 35 27 30 21 31 20 22 23 22 24 38 20 29 30 23 26 31 22 20 34 22 20 33 24 29
internal_value=0 0.00959347 -0.00391032 -0.00676846 -0.0170464 -0.00323451 0.00270392 0.0219269 0.0259447 0.0376296 -0.0136646 0.00977993 -0.00276172 0.00156063 0.00949428 0.0127017 0.0227446 -0.0159674 0.0287602 -0.00997921 -0.0139832 0.00464295 -0.0211104 0.0214822 -0.0216916 -0.018729 -0.027891 -0.0266434
internal_weight=0 287 137 469 120 349 238 150 128 68 80 57 187 135 80 60 51 111 48 55 52 40 57 42 76 53 80 56
internal_count=756 287 137 469 120 349 238 150 128 68 80 57 187 135 80 60 51 111 48 55 52 40 57 42 76 53 80 56
is_linear=0
shrinkage=0.05


Tree=13
num_leaves=28
num_cat=0
split_feature=5 0 4 0 5 0 5 0 3 3 1 5 5 3 5 5 2 5 2 0 4 1 3 2 2 2 0
split_gain=17.2072 17.2556 8.34408 9.28219 7.43761 6.60443 5.28186 6.95686 5.08569 3.96789 3.92338 3.86087 3.71956 3.5957 4.10998 2.99275 2.79593 5.79781 2.46748 2.42183 2.30494 3.29609 2.13526 1.91176 0.910239 0.517779 0.0417732
threshold=48.834276040000006 0.98878494528158523 0.52013322523422956 1.0000000180025095e-35 46.490430290000013 0.98703829795632403 48.190205785000011 0.98943623750456411 0.22769594213006764 0.60887642888679572 0.34135561847882295 47.49266213500001 49.721851950000008 0.38765282633448345 48.301245290000004 47.359570680000004 0.20778553202158614 47.304620120000003 0.26164322638457538 0.99017634230340368 0.56891320314214666 0.38435793191800954 0.17597636378541628 0.34960804432469728 0.52028501985620279 0.33884013553657183 0.98873560496166257
decision_type=2 2 2 2 2 2 2 2 2 2 2 2 2 2 2 2 2 2 2 2 2 2 2 2 2 2 2
left_child=2 5 3 4 -1 10 11 -8 -3 24 -2 16 19 26 -15 -6 22 18 -18 -10 21 -14 -5 -20 -7 -13 -4
right_child=1 8 13 6 15 9 7 -9 12 -11 -12 25 20 14 -16 -17 17 -19 23 -21 -22 -23 -24 -25 -26 -27 -28
leaf_value=-0.0057699326440812122 -0.0011092275593961988 -0.0013765741816975853 -0.027358094146174773 -0.024458260729443283 0.040474156066775326 -0.012372638119141693 -0.012362613551447105 0.020753051953922425 0.049108148589730262 0.0045484479678713765 0.025836644999005579 -0.017652067281305788 -0.0026710574261166833 0.0019007208278855763 -0.022780260942395658 0.014524799983948469 0.004451257970112448 0.021240235687721345 -0.021288106691624439 0.02596518620132254 0.029905137605965137 0.022469794854987415 -0.0039396208311830256 -0.0019096676679328083 -0.02525163014583728 -0.028445599928498266 -0.024740861654281618
leaf_weight=31 35 22 31 32 20 23 29 35 20 23 22 20 22 37 31 25 26 21 35 26 28 32 21 20 34 25 30
leaf_count=31 35 22 31 32 20 23 29 35 20 23 22 20 22 37 31 25 26 21 35 26 28 32 21 20 34 25 30
internal_value=0 0.00911379 -0.00643004 -0.00232206 0.0130755 -0.00371481 -0.00675468 0.00574752 0.0208306 -0.0129814 0.00929093 -0.0107554 0.0246474 -0.0172573 -0.0093509 0.0260578 -0.00701223 -0.00217156 -0.00824129 0.0360273 0.0182636 0.0122272 -0.0163282 -0.0142414 -0.0200548 -0.0236485 -0.0260709
internal_weight=0 287 469 340 76 137 264 64 150 80 57 200 128 129 68 45 155 102 81 46 82 54 53 55 57 45 61
internal_count=756 287 469 340 76 137 264 64 150 80 57 200 128 129 68 45 155 102 81 46 82 54 53 55 57 45 61
is_linear=0
shrinkage=0.05


Tree=14
num_leaves=28
num_cat=0
split_feature=6 3 3 0 1 6 6 0 5 5 2 5 6 3 1 0 6 2 3 5 0 2 6 3 3 0 2
split_gain=15.8858 17.3853 10.016 10.746 12.4872 9.61772 8.28288 7.35351 8.81511 6.69653 4.91639 3.22105 3.05617 3.14802 2.84375 2.57173 1.71668 1.48278 1.48207 1.19467 0.919758 0.676539 0.680858 0.36531 0.312592 0.08099 0.0558437
threshold=48.194866260000005 0.20812023386979087 0.27096907356738903 1.0000000180025095e-35 0.43300547895492075 45.998937250000004 52.422508625000006 0.98921914009690448 47.390340710000011 49.141359900000005 0.36048216003971384 51.137463745000005 48.837983310000006 0.4691928152484795 0.49623030636032356 0.98759090953945761 51.643521135000007 0.21775945867030225 0.54428784509465655 47.040070645000007 0.99257921588363585 0.33806261457229492 45.163754780000005 0.48883586329064527 0.12226778095126394 0.98839022272220423 0.42060584744070423
decision_type=2 2 2 2 2 2 2 2 2 2 2 2 2 2 2 2 2 2 2 2 2 2 2 2 2 2 2
left_child=2 15 19 4 9 21 11 18 -9 -4 -6 12 -3 20 -10 -2 17 -17 -7 25 -14 -5 23 26 -18 -1 -23
right_child=1 6 3 5 10 7 -8 8 14 -11 -12 -13 13 -15 -16 16 24 -19 -20 -21 -22 22 -24 -25 -26 -27 -28
leaf_value=-0.029285050725395029 -0.021660511906851421 0.0056241825138303369 -0.021710311829605523 -0.012190961731868165 0.042103028120473035 -0.021744005288928749 0.043707855285278395 -0.0067955149493890967 0.013501419853419067 0.0094460063853434167 0.013553323184973315 0.0010344194041358101 0.022619460419809913 0.039782982929186389 0.040164850503206256 -0.0053972451862963761 -0.014014465681144171 0.012400925338268282 -0.0044020359489050781 -0.014905042717499394 0.0091527952502171214 -0.028361074200698305 -0.015027899251264685 -0.018317759884521365 -0.0057396583184599883 -0.02516304864906348 -0.024669391438364982
leaf_weight=22 22 33 34 31 25 28 28 38 20 35 38 36 32 22 20 22 21 25 22 35 21 21 34 20 25 26 20
leaf_count=22 22 33 34 31 25 28 28 38 20 35 38 36 32 22 20 22 21 25 22 35 21 21 34 20 25 26 20
internal_value=0 0.00876262 -0.0061725 -0.00278423 0.00878835 -0.00879833 0.0188251 0.000854835 0.0104499 -0.00590638 0.0248826 0.0139868 0.0183042 0.0238834 0.0268331 -0.00628733 -0.00265066 0.00406987 -0.0141135 -0.02193 0.0172836 -0.0186047 -0.0206976 -0.0238578 -0.00951729 -0.0270523 -0.0265603
internal_weight=0 287 469 386 132 254 172 128 78 69 63 144 108 75 40 115 93 47 50 83 53 126 95 61 46 48 41
internal_count=756 287 469 386 132 254 172 128 78 69 63 144 108 75 40 115 93 47 50 83 53 126 95 61 46 48 41
is_linear=0
shrinkage=0.05


Tree=15
num_leaves=30
num_cat=0
split_feature=5 6 5 4 1 0 6 6 0 0 5 2 6 4 4 0 1 2 5 4 4 4 0 0 1 5 4 1 6
split_gain=15.5325 12.6729 8.34233 8.33268 7.41555 11.6229 10.13 7.09421 6.42759 6.41921 5.32428 4.6451 4.52329 5.96554 4.56357 3.55086 2.04325 1.99103 1.61566 1.50441 1.47086 1.29177 1.21837 0.314798 0.247708 0.188496 0.131182 0.12322 0.00781269
threshold=49.141359900000005 48.885121620000007 49.90446969500001 0.68104648347636332 0.4243292134619297 1.0000000180025095e-35 47.065490610000005 45.998937250000004 0.98916979977698183 0.99065987743864536 51.001377475000005 0.43543201096184886 47.836568885000013 0.44145908756958552 0.33480048886094843 0.987393548259767 0.44506194141212269 0.29357118509391 47.36923525000001 0.5164602157677175 0.48816646089646709 0.5620590164610858 0.99012700198348103 0.9884642332020882 0.79925394007518535 47.775120425000004 0.53349210129146751 0.71234134658351189 48.178891510000007
decision_type=2 2 2 2 2 2 2 2 2 2 2 2 2 2 2 2 2 2 2 2 2 2 2 2 2 2 2 2 2
left_child=3 2 -2 4 26 6 11 20 18 10 -3 -6 13 17 27 21 -11 -10 24 -17 25 -4 -22 -21 -9 -7 -1 -14 -5
right_child=1 9 15 28 5 7 -8 8 12 16 -12 -13 14 -15 -16 19 -18 -19 -20 23 22 -23 -24 -25 -26 -27 -28 -29 -30
leaf_value=-0.026341002024710181 0.02032532559119557 0.044625804204444751 -0.0036027512435490884 -0.023204328177066951 0.039776698804714461 -0.026200729173918566 -0.0082909396104514609 -0.01468553064391017 -0.02068276462859699 0.020827935494127731 0.015586685958421893 0.01086706486142551 0.0079251765669323508 0.019564024660558926 0.032220356434583666 -0.023183865289859201 0.00049288853556693848 -0.00046722227707505229 -0.0023371926063428753 -0.012344580944627523 -0.018383957044436381 0.013602774105966093 -0.0029247471839189531 -0.0034733139723539352 -0.022293971513357502 -0.019793313115157866 -0.020614257715642455 0.002441434260635149 -0.024407981708645821
leaf_weight=20 38 38 24 26 33 24 30 20 29 21 27 24 20 21 25 27 30 21 23 20 26 20 25 20 23 22 20 21 28
leaf_count=20 38 38 24 26 33 24 30 20 29 21 27 24 20 21 25 27 30 21 23 20 26 20 25 20 23 22 20 21 28
internal_value=0 0.00975254 0.000104896 -0.00532269 -0.00298238 -0.000864009 0.0152266 -0.00553028 -0.000215331 0.0221448 0.0325634 0.0276042 0.00595997 -0.00279954 0.0153831 -0.00681741 0.00886614 -0.0121922 -0.0130337 -0.0140645 -0.0166533 0.00421794 -0.0108059 -0.00790895 -0.0187552 -0.0231363 -0.0234776 0.00511643 -0.0238284
internal_weight=0 265 149 481 427 387 87 300 203 116 65 57 137 71 66 111 51 50 66 67 97 44 51 40 43 46 40 41 54
internal_count=746 265 149 481 427 387 87 300 203 116 65 57 137 71 66 111 51 50 66 67 97 44 51 40 43 46 40 41 54
is_linear=0
shrinkage=0.05


Tree=16
num_leaves=30
num_cat=0
split_feature=5 6 5 4 3 5 6 3 5 4 0 6 2 4 0 6 2 3 0 0 0 4 0 4 4 2 0 2 6
split_gain=14.018 11.4373 7.52896 7.52024 6.92782 8.4762 6.06326 9.94949 3.60847 5.16562 3.20465 3.16959 3.10449 2.96773 2.90168 3.12212 3.24781 2.5437 1.84783 1.57909 1.41167 1.35773 1.21423 1.16582 0.491496 0.407722 0.284105 0.234453 0.00705095
threshold=49.141359900000005 48.885121620000007 49.90446969500001 0.68104648347636332 0.26521836485776656 51.137463745000005 45.43854940500001 0.35297350620588258 46.846414435000007 0.15402741946307649 0.987393548259767 45.998937250000004 0.32430110810305307 0.6045609246877135 0.98725539536398366 47.61431836500001 0.20644915775570785 0.26521836485776656 0.98937702912065684 0.99135064191756228 0.98982109199996071 0.5164602157677175 1.0000000180025095e-35 0.5620590164610858 0.50627644283710982 0.40922204630090087 0.9884642332020882 0.2584427138885308 48.178891510000007
decision_type=2 2 2 2 2 2 2 2 2 2 2 2 2 2 2 2 2 2 2 2 2 2 2 2 2 2 2 2 2
left_child=3 2 -2 6 -3 20 13 8 17 -10 23 -9 -13 22 -11 -16 18 27 -17 -18 -6 -12 -1 -4 25 -24 -23 -8 -5
right_child=1 4 10 28 5 -7 7 11 9 14 21 12 -14 -15 15 16 19 -19 -20 -21 -22 26 24 -25 -26 -27 -28 -29 -30
leaf_value=-0.007631642484303678 0.019309059623628857 -0.0022750268690288067 -0.0034226138455172384 -0.022044111788272858 0.04421294827169428 0.0004172519357366996 -0.024609911323271016 0.0010209168561480264 -0.022212167920382775 0.020985669121146203 -0.022024671941094479 0.013198818365732829 0.037927164950154052 0.0050506055709861573 -0.012420698436086669 -0.014551420459015805 0.023542241379618647 0.00054551721550524237 0.0064476192183792599 0.0047678956673258832 0.029786214456917384 -0.011727352030575275 -0.027907194755971435 0.01292263548821211 -0.014376139355202516 -0.017932042177943957 -0.0032996486127376563 -0.017310262369838628 -0.023187582514115745
leaf_weight=33 38 25 24 26 30 22 22 22 23 20 27 30 22 21 34 22 24 20 20 21 39 20 20 20 30 21 20 22 28
leaf_count=33 38 25 24 26 30 22 22 22 23 20 27 30 22 21 34 22 24 20 20 21 39 20 20 20 30 21 20 22 28
internal_value=0 0.00926492 9.96516e-05 -0.00505655 0.0210375 0.0274421 -0.00283326 0.000999932 -0.00417036 -0.000240912 -0.00647654 0.01693 0.0236608 -0.0120943 0.00334305 0.000426917 0.00544782 -0.0142396 -0.00455188 0.0147809 0.0360587 -0.0133613 -0.0155562 0.00400704 -0.0192395 -0.022798 -0.0075135 -0.0209601 -0.022637
internal_weight=0 265 149 481 116 91 427 302 228 164 111 74 52 125 141 121 87 64 42 45 69 67 104 44 71 41 40 44 54
internal_count=746 265 149 481 116 91 427 302 228 164 111 74 52 125 141 121 87 64 42 45 69 67 104 44 71 41 40 44 54
is_linear=0
shrinkage=0.05


Tree=17
num_leaves=31
num_cat=0
split_feature=5 6 5 4 3 5 6 3 5 4 0 6 2 4 0 6 2 3 0 0 6 3 4 5 0 4 4 4 0 6
split_gain=12.6513 10.3222 6.79488 6.78702 6.25236 7.64977 5.4721 8.97941 3.25664 4.66197 2.8922 2.86055 2.80181 2.67837 2.61877 2.81772 2.93115 2.29569 1.66767 1.42513 1.28675 2.85543 1.24458 1.14065 1.90925 1.05215 0.537059 0.305267 0.221879 0.00636348
threshold=49.141359900000005 48.885121620000007 49.90446969500001 0.68104648347636332 0.26521836485776656 51.137463745000005 45.43854940500001 0.35297350620588258 46.846414435000007 0.15402741946307649 0.987393548259767 45.998937250000004 0.32430110810305307 0.6045609246877135 0.98725539536398366 47.61431836500001 0.20644915775570785 0.26521836485776656 0.98937702912065684 0.99135064191756228 52.422508625000006 0.4691928152484795 0.57814493927147514 48.816871850000005 0.98818299337852922 0.5620590164610858 0.50627644283710982 0.50627644283710982 0.98892803220936087 48.178891510000007
decision_type=2 2 2 2 2 2 2 2 2 2 2 2 2 2 2 2 2 2 2 2 2 2 2 2 2 2 2 2 2 2
left_child=3 2 -2 6 -3 20 13 8 17 -10 25 -9 -13 23 -11 -16 18 28 -17 -18 21 -6 27 24 -1 -4 -26 -12 -8 -5
right_child=1 4 10 29 5 -7 7 11 9 14 22 12 -14 -15 15 16 19 -19 -20 -21 -22 -23 -24 -25 26 -27 -28 -29 -30 -31
leaf_value=-0.0028522280270628858 0.018343607007868981 -0.0021612756372196601 -0.0032514830119907859 -0.02094190630775232 0.018042363926768303 0.00039638939567587599 -0.023801568970084192 0.00096987126903100458 -0.021101559553821776 0.019936385750770572 -0.021712855990652161 0.012538877756645282 0.036030807079408658 0.0047980752729234249 -0.011799663469633636 -0.013823849555443635 0.022365129673077414 0.0005182416830211878 0.0061252382770180707 0.0045295009256473614 0.044578719618065019 0.042453742132562665 -0.003571605309844017 -0.025509719103574753 -0.022408222046590622 0.012276503657922148 -0.011899006236344576 -0.013266581334173681 -0.016670843586325645 -0.022028203468237605
leaf_weight=33 38 25 24 26 25 22 20 22 23 20 23 30 22 21 34 22 24 20 20 21 21 23 24 20 31 20 20 20 24 28
leaf_count=33 38 25 24 26 25 22 20 22 23 20 23 30 22 21 34 22 24 20 20 21 21 23 24 20 31 20 20 20 24 28
internal_value=0 0.00880167 9.46692e-05 -0.00480373 0.0199857 0.02607 -0.0026916 0.000949935 -0.00396185 -0.000228866 -0.00615271 0.0160835 0.0224778 -0.0114895 0.0031759 0.000405571 0.00517543 -0.0135276 -0.00432428 0.0140418 0.0342558 0.0297395 -0.0126932 -0.0147784 -0.0122233 0.00380669 -0.018287 -0.0177844 -0.0199121 -0.0215052
internal_weight=0 265 149 481 116 91 427 302 228 164 111 74 52 125 141 121 87 64 42 45 69 48 67 104 84 44 51 43 44 54
internal_count=746 265 149 481 116 91 427 302 228 164 111 74 52 125 141 121 87 64 42 45 69 48 67 104 84 44 51 43 44 54
is_linear=0
shrinkage=0.05


Tree=18
num_leaves=30
num_cat=0
split_feature=5 6 5 4 1 0 6 6 0 0 5 2 1 2 6 1 4 0 1 4 4 2 4 4 0 4 5 4 6
split_gain=11.4178 9.31577 6.13238 6.12528 6.59679 9.41649 8.87374 5.43057 5.02069 4.85866 4.43117 4.28459 2.98217 4.24477 4.70165 4.9913 3.92957 2.61021 1.74647 1.20177 1.12323 1.09054 0.949568 0.932294 0.486275 0.275503 0.184642 0.114146 0.00574304
threshold=49.141359900000005 48.885121620000007 49.90446969500001 0.68104648347636332 0.4243292134619297 1.0000000180025095e-35 47.065490610000005 45.998937250000004 0.99065987743864536 0.98871586883369356 51.001377475000005 0.36048216003971384 0.82215010852274595 0.32430110810305307 47.836568885000013 0.73491663230297954 0.43088779387665604 0.987393548259767 0.44506194141212269 0.48816646089646709 0.57814493927147514 0.34725571364513536 0.5620590164610858 0.31674674975097294 0.98767478808332598 0.50627644283710982 47.775120425000004 0.53349210129146751 48.178891510000007
decision_type=2 2 2 2 2 2 2 2 2 2 2 2 2 2 2 2 2 2 2 2 2 2 2 2 2 2 2 2 2
left_child=3 2 -2 4 27 6 11 19 10 24 -3 -6 13 14 16 23 -11 22 -10 26 25 -21 -4 -16 -9 -19 -7 -1 -5
right_child=1 8 17 28 5 7 -8 9 18 12 -12 -13 -14 -15 15 -17 -18 20 -20 21 -22 -23 -24 -25 -26 -27 -28 -29 -30
leaf_value=-0.024558721147477629 0.017426426382677929 0.039204749102263077 -0.0030889088908831281 -0.019894811167166786 0.044154261313378816 -0.023383898101747038 -0.0080870021507143987 -0.020472445081742036 0.018301964586689361 -0.018585473887266262 0.012712906773581549 0.015430166564781118 -0.013660816874887264 0.025212739463895562 -0.0057349438033998017 0.032490386551362459 0.0093454413115978251 -0.020627213164192179 -0.00049833697965368635 -0.00046648026577063973 -0.0033930251530061165 -0.0153226259102424 0.011662678495049476 0.0095317970588803293 -0.0098353234416043225 -0.012603252129629256 -0.017042319076559086 -0.019216754473745823 -0.020926793185727939
leaf_weight=20 38 38 24 26 20 24 30 21 21 34 27 37 21 25 20 20 20 23 30 21 24 30 20 20 22 20 22 20 28
leaf_count=20 38 38 24 26 20 24 30 21 21 34 27 37 21 25 20 20 20 23 30 21 24 30 20 20 22 20 22 20 28
internal_value=0 0.00836159 8.99356e-05 -0.00456354 -0.00255702 -0.000559012 0.013924 -0.0047591 0.0189864 -0.000108914 0.0282004 0.0255088 0.00390118 0.00655443 0.0024627 0.0120957 -0.00824069 -0.00584508 0.00724296 -0.0144909 -0.0120586 -0.00920539 0.00361636 0.00189843 -0.0150302 -0.0168951 -0.020351 -0.0218877 -0.0204299
internal_weight=0 265 149 481 427 387 87 300 116 203 65 57 160 139 114 60 54 111 51 97 67 51 44 40 43 43 46 40 54
internal_count=746 265 149 481 427 387 87 300 116 203 65 57 160 139 114 60 54 111 51 97 67 51 44 40 43 43 46 40 54
is_linear=0
shrinkage=0.05


Tree=19
num_leaves=31
num_cat=0
split_feature=5 0 0 4 1 0 3 2 5 5 0 5 3 2 2 2 1 4 1 0 0 3 2 1 0 2 2 4 4 0
split_gain=10.3045 8.27378 5.9032 5.52807 5.95361 8.49838 5.50602 5.55268 5.26602 4.00993 3.96507 4.33787 2.99858 2.17222 2.14767 4.00484 1.89977 1.69595 1.69326 1.44307 1.38942 1.29831 1.21638 0.965482 0.760858 0.533895 0.487251 0.298343 0.103017 0.00214846
threshold=49.141359900000005 0.98878494528158523 0.98725539536398366 0.68104648347636332 0.4243292134619297 1.0000000180025095e-35 0.33163073143355154 0.34049527434884558 46.846414435000007 50.370812080000007 0.98871586883369356 48.250080035000003 0.50692302333160855 0.36048216003971384 0.26010834759848711 0.20644915775570785 0.26415826015094829 0.50145799112801115 0.62361830599447943 0.99153813513326827 0.99052172454286203 0.22533408528180013 0.57287207682955199 0.78211246087099073 0.98759090953945761 0.60931665133405255 0.31567520074367134 0.3529411535515723 0.53349210129146751 0.98831127821032794
decision_type=2 2 2 2 2 2 2 2 2 2 2 2 2 2 2 2 2 2 2 2 2 2 2 2 2 2 2 2 2 2
left_child=3 2 16 4 28 8 7 -3 -6 17 24 14 -11 -10 15 23 -2 -8 -16 -13 -20 -17 -4 -12 -7 -18 -22 -26 -1 -5
right_child=1 6 22 29 5 10 9 -9 13 12 11 19 -14 -15 18 21 25 -19 20 -21 26 -23 -24 -25 27 -27 -28 -29 -30 -31
leaf_value=-0.023330785147845746 -0.0025336927734315399 0.020153506695351098 -0.020016203584770364 -0.019803769744577863 -0.0014136584786077341 -0.02019742517732084 0.043707061170235928 -0.013197897876111362 0.034948500051446584 0.00040106419473886492 -0.016100827636926072 0.023161312909796835 0.025416891369968653 0.014210640562565199 -0.0011416222091372075 0.0038581337733194238 0.021266593523323538 0.02405403983734903 -0.0037832389585673813 0.0043948854718889509 -0.025443348530679945 0.021874188613146547 -0.0056556406591472957 -0.0010798735870048404 -0.0055604597646743067 0.009851877338119916 -0.014538655359120595 -0.013753576517105105 -0.01825591629371047 -0.019156829606403004
leaf_weight=20 23 24 30 21 36 32 23 26 23 23 23 20 25 28 38 20 20 21 20 21 20 20 29 20 20 21 21 25 20 33
leaf_count=20 23 24 30 21 36 32 23 26 23 23 23 20 25 28 38 20 20 21 20 21 20 20 29 20 20 21 21 25 20 33
internal_value=0 0.00794351 -0.00154921 -0.00433536 -0.00242917 -0.000531062 0.0161661 0.00281078 0.0132278 0.0234244 -0.00452114 -0.00114339 0.0134301 0.023563 -0.00445327 0.00147867 0.00896791 0.0343272 -0.00942652 0.0135492 -0.0145876 0.0128662 -0.0129576 -0.00911434 -0.0143035 0.01542 -0.019858 -0.0101122 -0.0207934 -0.0194084
internal_weight=0 265 123 481 427 387 142 50 87 92 300 223 48 51 182 83 64 44 99 41 61 40 59 43 77 41 41 45 40 54
internal_count=746 265 123 481 427 387 142 50 87 92 300 223 48 51 182 83 64 44 99 41 61 40 59 43 77 41 41 45 40 54
is_linear=0
shrinkage=0.05


end of trees

feature_importances:
Column_6=101
Column_0=97
Column_5=89
Column_3=81
Column_4=76
Column_2=60
Column_1=58

parameters:
[boosting: gbdt]
[objective: regression]
[metric: l1,l2]
[tree_learner: serial]
[device_type: cpu]
[linear_tree: 0]
[data: ]
[valid: ]
[num_iterations: 20]
[learning_rate: 0.05]
[num_leaves: 31]
[num_threads: 0]
[deterministic: 0]
[force_col_wise: 0]
[force_row_wise: 0]
[histogram_pool_size: -1]
[max_depth: -1]
[min_data_in_leaf: 20]
[min_sum_hessian_in_leaf: 0.001]
[bagging_fraction: 0.8]
[pos_bagging_fraction: 1]
[neg_bagging_fraction: 1]
[bagging_freq: 5]
[bagging_seed: 3]
[feature_fraction: 0.9]
[feature_fraction_bynode: 1]
[feature_fraction_seed: 2]
[extra_trees: 0]
[extra_seed: 6]
[early_stopping_round: 0]
[first_metric_only: 0]
[max_delta_step: 0]
[lambda_l1: 0]
[lambda_l2: 0]
[linear_lambda: 0]
[min_gain_to_split: 0]
[drop_rate: 0.1]
[max_drop: 50]
[skip_drop: 0.5]
[xgboost_dart_mode: 0]
[uniform_drop: 0]
[drop_seed: 4]
[top_rate: 0.2]
[other_rate: 0.1]
[min_data_per_group: 100]
[max_cat_threshold: 32]
[cat_l2: 10]
[cat_smooth: 10]
[max_cat_to_onehot: 4]
[top_k: 20]
[monotone_constraints: ]
[monotone_constraints_method: basic]
[monotone_penalty: 0]
[feature_contri: ]
[forcedsplits_filename: ]
[refit_decay_rate: 0.9]
[cegb_tradeoff: 1]
[cegb_penalty_split: 0]
[cegb_penalty_feature_lazy: ]
[cegb_penalty_feature_coupled: ]
[path_smooth: 0]
[interaction_constraints: ]
[verbosity: 0]
[saved_feature_importance_type: 0]
[max_bin: 255]
[max_bin_by_feature: ]
[min_data_in_bin: 3]
[bin_construct_sample_cnt: 200000]
[data_random_seed: 1]
[is_enable_sparse: 1]
[enable_bundle: 1]
[use_missing: 1]
[zero_as_missing: 0]
[feature_pre_filter: 1]
[pre_partition: 0]
[two_round: 0]
[header: 0]
[label_column: ]
[weight_column: ]
[group_column: ]
[ignore_column: ]
[categorical_feature: ]
[forcedbins_filename: ]
[objective_seed: 5]
[num_class: 1]
[is_unbalance: 0]
[scale_pos_weight: 1]
[sigmoid: 1]
[boost_from_average: 1]
[reg_sqrt: 0]
[alpha: 0.9]
[fair_c: 1]
[poisson_max_delta_step: 0.7]
[tweedie_variance_power: 1.5]
[lambdarank_truncation_level: 30]
[lambdarank_norm: 1]
[label_gain: ]
[eval_at: ]
[multi_error_top_k: 1]
[auc_mu_weights: ]
[num_machines: 1]
[local_listen_port: 12400]
[time_out: 120]
[machine_list_filename: ]
[machines: ]
[gpu_platform_id: -1]
[gpu_device_id: -1]
[gpu_use_dp: 0]
[num_gpu: 1]

end of parameters

pandas_categorical:null
